digraph Tree {
node [shape=box, style="filled, rounded", color="black", fontname=helvetica] ;
edge [fontname=helvetica] ;
0 [label=<X<SUB>5</SUB> &le; 16.079<br/>gini = 0.636<br/>samples = 210<br/>value = [41, 77, 92]>, fillcolor="#8139e51d"] ;
1 [label=<X<SUB>3</SUB> &le; 29.929<br/>gini = 0.482<br/>samples = 120<br/>value = [41, 76, 3]>, fillcolor="#39e58171"] ;
0 -> 1 [labeldistance=2.5, labelangle=45, headlabel="True"] ;
2 [label=<X<SUB>4</SUB> &le; 123.481<br/>gini = 0.43<br/>samples = 32<br/>value = [22, 10, 0]>, fillcolor="#e581398b"] ;
1 -> 2 ;
3 [label=<X<SUB>0</SUB> &le; 45.063<br/>gini = 0.105<br/>samples = 18<br/>value = [17, 1, 0]>, fillcolor="#e58139f0"] ;
2 -> 3 ;
4 [label=<gini = 0.0<br/>samples = 12<br/>value = [12, 0, 0]>, fillcolor="#e58139ff"] ;
3 -> 4 ;
5 [label=<X<SUB>2</SUB> &le; 38.223<br/>gini = 0.278<br/>samples = 6<br/>value = [5, 1, 0]>, fillcolor="#e58139cc"] ;
3 -> 5 ;
6 [label=<gini = 0.444<br/>samples = 3<br/>value = [2, 1, 0]>, fillcolor="#e581397f"] ;
5 -> 6 ;
7 [label=<gini = 0.0<br/>samples = 3<br/>value = [3, 0, 0]>, fillcolor="#e58139ff"] ;
5 -> 7 ;
8 [label=<X<SUB>0</SUB> &le; 43.161<br/>gini = 0.459<br/>samples = 14<br/>value = [5, 9, 0]>, fillcolor="#39e58171"] ;
2 -> 8 ;
9 [label=<X<SUB>1</SUB> &le; 13.171<br/>gini = 0.298<br/>samples = 11<br/>value = [2, 9, 0]>, fillcolor="#39e581c6"] ;
8 -> 9 ;
10 [label=<gini = 0.48<br/>samples = 5<br/>value = [2, 3, 0]>, fillcolor="#39e58155"] ;
9 -> 10 ;
11 [label=<gini = 0.0<br/>samples = 6<br/>value = [0, 6, 0]>, fillcolor="#39e581ff"] ;
9 -> 11 ;
12 [label=<gini = 0.0<br/>samples = 3<br/>value = [3, 0, 0]>, fillcolor="#e58139ff"] ;
8 -> 12 ;
13 [label=<X<SUB>4</SUB> &le; 118.087<br/>gini = 0.39<br/>samples = 88<br/>value = [19, 66, 3]>, fillcolor="#39e581ae"] ;
1 -> 13 ;
14 [label=<X<SUB>3</SUB> &le; 47.149<br/>gini = 0.552<br/>samples = 34<br/>value = [15, 17, 2]>, fillcolor="#39e5811b"] ;
13 -> 14 ;
15 [label=<X<SUB>4</SUB> &le; 113.642<br/>gini = 0.469<br/>samples = 24<br/>value = [15, 9, 0]>, fillcolor="#e5813966"] ;
14 -> 15 ;
16 [label=<X<SUB>2</SUB> &le; 50.526<br/>gini = 0.165<br/>samples = 11<br/>value = [10, 1, 0]>, fillcolor="#e58139e6"] ;
15 -> 16 ;
17 [label=<gini = 0.0<br/>samples = 8<br/>value = [8, 0, 0]>, fillcolor="#e58139ff"] ;
16 -> 17 ;
18 [label=<gini = 0.444<br/>samples = 3<br/>value = [2, 1, 0]>, fillcolor="#e581397f"] ;
16 -> 18 ;
19 [label=<X<SUB>2</SUB> &le; 34.5<br/>gini = 0.473<br/>samples = 13<br/>value = [5, 8, 0]>, fillcolor="#39e58160"] ;
15 -> 19 ;
20 [label=<gini = 0.32<br/>samples = 5<br/>value = [4, 1, 0]>, fillcolor="#e58139bf"] ;
19 -> 20 ;
21 [label=<X<SUB>3</SUB> &le; 34.401<br/>gini = 0.219<br/>samples = 8<br/>value = [1, 7, 0]>, fillcolor="#39e581db"] ;
19 -> 21 ;
22 [label=<gini = 0.444<br/>samples = 3<br/>value = [1, 2, 0]>, fillcolor="#39e5817f"] ;
21 -> 22 ;
23 [label=<gini = 0.0<br/>samples = 5<br/>value = [0, 5, 0]>, fillcolor="#39e581ff"] ;
21 -> 23 ;
24 [label=<X<SUB>0</SUB> &le; 72.65<br/>gini = 0.32<br/>samples = 10<br/>value = [0, 8, 2]>, fillcolor="#39e581bf"] ;
14 -> 24 ;
25 [label=<gini = 0.48<br/>samples = 5<br/>value = [0, 3, 2]>, fillcolor="#39e58155"] ;
24 -> 25 ;
26 [label=<gini = 0.0<br/>samples = 5<br/>value = [0, 5, 0]>, fillcolor="#39e581ff"] ;
24 -> 26 ;
27 [label=<X<SUB>5</SUB> &le; 5.202<br/>gini = 0.171<br/>samples = 54<br/>value = [4, 49, 1]>, fillcolor="#39e581e6"] ;
13 -> 27 ;
28 [label=<X<SUB>1</SUB> &le; 22.092<br/>gini = 0.046<br/>samples = 42<br/>value = [1, 41, 0]>, fillcolor="#39e581f9"] ;
27 -> 28 ;
29 [label=<gini = 0.0<br/>samples = 39<br/>value = [0, 39, 0]>, fillcolor="#39e581ff"] ;
28 -> 29 ;
30 [label=<gini = 0.444<br/>samples = 3<br/>value = [1, 2, 0]>, fillcolor="#39e5817f"] ;
28 -> 30 ;
31 [label=<X<SUB>2</SUB> &le; 38.438<br/>gini = 0.486<br/>samples = 12<br/>value = [3, 8, 1]>, fillcolor="#39e5818e"] ;
27 -> 31 ;
32 [label=<gini = 0.375<br/>samples = 4<br/>value = [3, 1, 0]>, fillcolor="#e58139aa"] ;
31 -> 32 ;
33 [label=<X<SUB>3</SUB> &le; 46.449<br/>gini = 0.219<br/>samples = 8<br/>value = [0, 7, 1]>, fillcolor="#39e581db"] ;
31 -> 33 ;
34 [label=<gini = 0.0<br/>samples = 5<br/>value = [0, 5, 0]>, fillcolor="#39e581ff"] ;
33 -> 34 ;
35 [label=<gini = 0.444<br/>samples = 3<br/>value = [0, 2, 1]>, fillcolor="#39e5817f"] ;
33 -> 35 ;
36 [label=<X<SUB>0</SUB> &le; 56.319<br/>gini = 0.022<br/>samples = 90<br/>value = [0, 1, 89]>, fillcolor="#8139e5fc"] ;
0 -> 36 [labeldistance=2.5, labelangle=-45, headlabel="False"] ;
37 [label=<X<SUB>0</SUB> &le; 54.911<br/>gini = 0.111<br/>samples = 17<br/>value = [0, 1, 16]>, fillcolor="#8139e5ef"] ;
36 -> 37 ;
38 [label=<gini = 0.0<br/>samples = 14<br/>value = [0, 0, 14]>, fillcolor="#8139e5ff"] ;
37 -> 38 ;
39 [label=<gini = 0.444<br/>samples = 3<br/>value = [0, 1, 2]>, fillcolor="#8139e57f"] ;
37 -> 39 ;
40 [label=<gini = 0.0<br/>samples = 73<br/>value = [0, 0, 73]>, fillcolor="#8139e5ff"] ;
36 -> 40 ;
}