digraph Tree {
node [shape=box, style="filled, rounded", color="black", fontname=helvetica] ;
edge [fontname=helvetica] ;
0 [label=<X<SUB>5</SUB> &le; 14.854<br/>gini = 0.464<br/>samples = 210<br/>value = [133, 77]>, fillcolor="#e581396b"] ;
1 [label=<X<SUB>4</SUB> &le; 125.153<br/>gini = 0.462<br/>samples = 119<br/>value = [43, 76]>, fillcolor="#399de56f"] ;
0 -> 1 [labeldistance=2.5, labelangle=45, headlabel="True"] ;
2 [label=<X<SUB>3</SUB> &le; 29.61<br/>gini = 0.5<br/>samples = 79<br/>value = [40, 39]>, fillcolor="#e5813906"] ;
1 -> 2 ;
3 [label=<X<SUB>3</SUB> &le; 26.461<br/>gini = 0.172<br/>samples = 21<br/>value = [19, 2]>, fillcolor="#e58139e4"] ;
2 -> 3 ;
4 [label=<gini = 0.0<br/>samples = 12<br/>value = [12, 0]>, fillcolor="#e58139ff"] ;
3 -> 4 ;
5 [label=<X<SUB>3</SUB> &le; 27.305<br/>gini = 0.346<br/>samples = 9<br/>value = [7, 2]>, fillcolor="#e58139b6"] ;
3 -> 5 ;
6 [label=<gini = 0.444<br/>samples = 3<br/>value = [1, 2]>, fillcolor="#399de57f"] ;
5 -> 6 ;
7 [label=<gini = 0.0<br/>samples = 6<br/>value = [6, 0]>, fillcolor="#e58139ff"] ;
5 -> 7 ;
8 [label=<X<SUB>4</SUB> &le; 99.587<br/>gini = 0.462<br/>samples = 58<br/>value = [21, 37]>, fillcolor="#399de56e"] ;
2 -> 8 ;
9 [label=<gini = 0.0<br/>samples = 4<br/>value = [4, 0]>, fillcolor="#e58139ff"] ;
8 -> 9 ;
10 [label=<X<SUB>1</SUB> &le; 18.922<br/>gini = 0.431<br/>samples = 54<br/>value = [17, 37]>, fillcolor="#399de58a"] ;
8 -> 10 ;
11 [label=<X<SUB>3</SUB> &le; 38.397<br/>gini = 0.334<br/>samples = 33<br/>value = [7, 26]>, fillcolor="#399de5ba"] ;
10 -> 11 ;
12 [label=<X<SUB>4</SUB> &le; 115.643<br/>gini = 0.492<br/>samples = 16<br/>value = [7, 9]>, fillcolor="#399de539"] ;
11 -> 12 ;
13 [label=<gini = 0.0<br/>samples = 3<br/>value = [3, 0]>, fillcolor="#e58139ff"] ;
12 -> 13 ;
14 [label=<X<SUB>1</SUB> &le; 10.486<br/>gini = 0.426<br/>samples = 13<br/>value = [4, 9]>, fillcolor="#399de58e"] ;
12 -> 14 ;
15 [label=<gini = 0.0<br/>samples = 6<br/>value = [0, 6]>, fillcolor="#399de5ff"] ;
14 -> 15 ;
16 [label=<X<SUB>0</SUB> &le; 48.969<br/>gini = 0.49<br/>samples = 7<br/>value = [4, 3]>, fillcolor="#e5813940"] ;
14 -> 16 ;
17 [label=<gini = 0.0<br/>samples = 3<br/>value = [3, 0]>, fillcolor="#e58139ff"] ;
16 -> 17 ;
18 [label=<gini = 0.375<br/>samples = 4<br/>value = [1, 3]>, fillcolor="#399de5aa"] ;
16 -> 18 ;
19 [label=<gini = 0.0<br/>samples = 17<br/>value = [0, 17]>, fillcolor="#399de5ff"] ;
11 -> 19 ;
20 [label=<X<SUB>2</SUB> &le; 51.303<br/>gini = 0.499<br/>samples = 21<br/>value = [10, 11]>, fillcolor="#399de517"] ;
10 -> 20 ;
21 [label=<X<SUB>3</SUB> &le; 33.92<br/>gini = 0.444<br/>samples = 12<br/>value = [8, 4]>, fillcolor="#e581397f"] ;
20 -> 21 ;
22 [label=<gini = 0.375<br/>samples = 4<br/>value = [1, 3]>, fillcolor="#399de5aa"] ;
21 -> 22 ;
23 [label=<X<SUB>3</SUB> &le; 38.971<br/>gini = 0.219<br/>samples = 8<br/>value = [7, 1]>, fillcolor="#e58139db"] ;
21 -> 23 ;
24 [label=<gini = 0.444<br/>samples = 3<br/>value = [2, 1]>, fillcolor="#e581397f"] ;
23 -> 24 ;
25 [label=<gini = 0.0<br/>samples = 5<br/>value = [5, 0]>, fillcolor="#e58139ff"] ;
23 -> 25 ;
26 [label=<X<SUB>1</SUB> &le; 22.288<br/>gini = 0.346<br/>samples = 9<br/>value = [2, 7]>, fillcolor="#399de5b6"] ;
20 -> 26 ;
27 [label=<gini = 0.48<br/>samples = 5<br/>value = [2, 3]>, fillcolor="#399de555"] ;
26 -> 27 ;
28 [label=<gini = 0.0<br/>samples = 4<br/>value = [0, 4]>, fillcolor="#399de5ff"] ;
26 -> 28 ;
29 [label=<X<SUB>5</SUB> &le; 5.55<br/>gini = 0.139<br/>samples = 40<br/>value = [3, 37]>, fillcolor="#399de5ea"] ;
1 -> 29 ;
30 [label=<gini = 0.0<br/>samples = 30<br/>value = [0, 30]>, fillcolor="#399de5ff"] ;
29 -> 30 ;
31 [label=<X<SUB>3</SUB> &le; 30.265<br/>gini = 0.42<br/>samples = 10<br/>value = [3, 7]>, fillcolor="#399de592"] ;
29 -> 31 ;
32 [label=<gini = 0.48<br/>samples = 5<br/>value = [3, 2]>, fillcolor="#e5813955"] ;
31 -> 32 ;
33 [label=<gini = 0.0<br/>samples = 5<br/>value = [0, 5]>, fillcolor="#399de5ff"] ;
31 -> 33 ;
34 [label=<X<SUB>0</SUB> &le; 56.319<br/>gini = 0.022<br/>samples = 91<br/>value = [90, 1]>, fillcolor="#e58139fc"] ;
0 -> 34 [labeldistance=2.5, labelangle=-45, headlabel="False"] ;
35 [label=<X<SUB>0</SUB> &le; 54.911<br/>gini = 0.111<br/>samples = 17<br/>value = [16, 1]>, fillcolor="#e58139ef"] ;
34 -> 35 ;
36 [label=<gini = 0.0<br/>samples = 14<br/>value = [14, 0]>, fillcolor="#e58139ff"] ;
35 -> 36 ;
37 [label=<gini = 0.444<br/>samples = 3<br/>value = [2, 1]>, fillcolor="#e581397f"] ;
35 -> 37 ;
38 [label=<gini = 0.0<br/>samples = 74<br/>value = [74, 0]>, fillcolor="#e58139ff"] ;
34 -> 38 ;
}