digraph Tree {
node [shape=box, style="filled, rounded", color="black", fontname=helvetica] ;
edge [fontname=helvetica] ;
0 [label=<X<SUB>4</SUB> &le; 1.5<br/>gini = 0.464<br/>samples = 210<br/>value = [133, 77]>, fillcolor="#e581396b"] ;
1 [label=<X<SUB>4</SUB> &le; 0.5<br/>gini = 0.312<br/>samples = 93<br/>value = [75, 18]>, fillcolor="#e58139c2"] ;
0 -> 1 [labeldistance=2.5, labelangle=45, headlabel="True"] ;
2 [label=<gini = 0.0<br/>samples = 9<br/>value = [9, 0]>, fillcolor="#e58139ff"] ;
1 -> 2 ;
3 [label=<X<SUB>3</SUB> &le; 0.5<br/>gini = 0.337<br/>samples = 84<br/>value = [66, 18]>, fillcolor="#e58139b9"] ;
1 -> 3 ;
4 [label=<X<SUB>0</SUB> &le; 0.5<br/>gini = 0.417<br/>samples = 27<br/>value = [19, 8]>, fillcolor="#e5813994"] ;
3 -> 4 ;
5 [label=<gini = 0.291<br/>samples = 17<br/>value = [14, 3]>, fillcolor="#e58139c8"] ;
4 -> 5 ;
6 [label=<gini = 0.5<br/>samples = 10<br/>value = [5, 5]>, fillcolor="#e5813900"] ;
4 -> 6 ;
7 [label=<X<SUB>1</SUB> &le; 1.5<br/>gini = 0.289<br/>samples = 57<br/>value = [47, 10]>, fillcolor="#e58139c9"] ;
3 -> 7 ;
8 [label=<X<SUB>1</SUB> &le; 0.5<br/>gini = 0.32<br/>samples = 40<br/>value = [32, 8]>, fillcolor="#e58139bf"] ;
7 -> 8 ;
9 [label=<gini = 0.278<br/>samples = 12<br/>value = [10, 2]>, fillcolor="#e58139cc"] ;
8 -> 9 ;
10 [label=<gini = 0.337<br/>samples = 28<br/>value = [22, 6]>, fillcolor="#e58139b9"] ;
8 -> 10 ;
11 [label=<X<SUB>2</SUB> &le; 1.5<br/>gini = 0.208<br/>samples = 17<br/>value = [15, 2]>, fillcolor="#e58139dd"] ;
7 -> 11 ;
12 [label=<gini = 0.219<br/>samples = 8<br/>value = [7, 1]>, fillcolor="#e58139db"] ;
11 -> 12 ;
13 [label=<gini = 0.198<br/>samples = 9<br/>value = [8, 1]>, fillcolor="#e58139df"] ;
11 -> 13 ;
14 [label=<X<SUB>2</SUB> &le; 1.5<br/>gini = 0.5<br/>samples = 117<br/>value = [58, 59]>, fillcolor="#399de504"] ;
0 -> 14 [labeldistance=2.5, labelangle=-45, headlabel="False"] ;
15 [label=<X<SUB>1</SUB> &le; 1.5<br/>gini = 0.474<br/>samples = 96<br/>value = [37, 59]>, fillcolor="#399de55f"] ;
14 -> 15 ;
16 [label=<X<SUB>1</SUB> &le; 0.5<br/>gini = 0.43<br/>samples = 80<br/>value = [25, 55]>, fillcolor="#399de58b"] ;
15 -> 16 ;
17 [label=<gini = 0.231<br/>samples = 15<br/>value = [2, 13]>, fillcolor="#399de5d8"] ;
16 -> 17 ;
18 [label=<X<SUB>2</SUB> &le; 0.5<br/>gini = 0.457<br/>samples = 65<br/>value = [23, 42]>, fillcolor="#399de573"] ;
16 -> 18 ;
19 [label=<gini = 0.482<br/>samples = 37<br/>value = [15, 22]>, fillcolor="#399de551"] ;
18 -> 19 ;
20 [label=<X<SUB>0</SUB> &le; 0.5<br/>gini = 0.408<br/>samples = 28<br/>value = [8, 20]>, fillcolor="#399de599"] ;
18 -> 20 ;
21 [label=<gini = 0.32<br/>samples = 10<br/>value = [2, 8]>, fillcolor="#399de5bf"] ;
20 -> 21 ;
22 [label=<gini = 0.444<br/>samples = 18<br/>value = [6, 12]>, fillcolor="#399de57f"] ;
20 -> 22 ;
23 [label=<gini = 0.375<br/>samples = 16<br/>value = [12, 4]>, fillcolor="#e58139aa"] ;
15 -> 23 ;
24 [label=<gini = 0.0<br/>samples = 21<br/>value = [21, 0]>, fillcolor="#e58139ff"] ;
14 -> 24 ;
}