digraph Tree {
node [shape=box, style="filled, rounded", color="black", fontname=helvetica] ;
edge [fontname=helvetica] ;
0 [label=<X<SUB>4</SUB> &le; 1.5<br/>gini = 0.464<br/>samples = 210<br/>value = [133, 77]>, fillcolor="#e581396b"] ;
1 [label=<X<SUB>3</SUB> &le; 0.5<br/>gini = 0.312<br/>samples = 93<br/>value = [75, 18]>, fillcolor="#e58139c2"] ;
0 -> 1 [labeldistance=2.5, labelangle=45, headlabel="True"] ;
2 [label=<gini = 0.4<br/>samples = 29<br/>value = [21, 8]>, fillcolor="#e581399e"] ;
1 -> 2 ;
3 [label=<X<SUB>1</SUB> &le; 1.5<br/>gini = 0.264<br/>samples = 64<br/>value = [54, 10]>, fillcolor="#e58139d0"] ;
1 -> 3 ;
4 [label=<X<SUB>1</SUB> &le; 0.5<br/>gini = 0.298<br/>samples = 44<br/>value = [36, 8]>, fillcolor="#e58139c6"] ;
3 -> 4 ;
5 [label=<gini = 0.278<br/>samples = 12<br/>value = [10, 2]>, fillcolor="#e58139cc"] ;
4 -> 5 ;
6 [label=<gini = 0.305<br/>samples = 32<br/>value = [26, 6]>, fillcolor="#e58139c4"] ;
4 -> 6 ;
7 [label=<gini = 0.18<br/>samples = 20<br/>value = [18, 2]>, fillcolor="#e58139e3"] ;
3 -> 7 ;
8 [label=<X<SUB>2</SUB> &le; 1.5<br/>gini = 0.5<br/>samples = 117<br/>value = [58, 59]>, fillcolor="#399de504"] ;
0 -> 8 [labeldistance=2.5, labelangle=-45, headlabel="False"] ;
9 [label=<X<SUB>1</SUB> &le; 1.5<br/>gini = 0.474<br/>samples = 96<br/>value = [37, 59]>, fillcolor="#399de55f"] ;
8 -> 9 ;
10 [label=<X<SUB>1</SUB> &le; 0.5<br/>gini = 0.43<br/>samples = 80<br/>value = [25, 55]>, fillcolor="#399de58b"] ;
9 -> 10 ;
11 [label=<gini = 0.231<br/>samples = 15<br/>value = [2, 13]>, fillcolor="#399de5d8"] ;
10 -> 11 ;
12 [label=<X<SUB>2</SUB> &le; 0.5<br/>gini = 0.457<br/>samples = 65<br/>value = [23, 42]>, fillcolor="#399de573"] ;
10 -> 12 ;
13 [label=<gini = 0.482<br/>samples = 37<br/>value = [15, 22]>, fillcolor="#399de551"] ;
12 -> 13 ;
14 [label=<X<SUB>3</SUB> &le; 0.5<br/>gini = 0.408<br/>samples = 28<br/>value = [8, 20]>, fillcolor="#399de599"] ;
12 -> 14 ;
15 [label=<gini = 0.426<br/>samples = 13<br/>value = [4, 9]>, fillcolor="#399de58e"] ;
14 -> 15 ;
16 [label=<gini = 0.391<br/>samples = 15<br/>value = [4, 11]>, fillcolor="#399de5a2"] ;
14 -> 16 ;
17 [label=<gini = 0.375<br/>samples = 16<br/>value = [12, 4]>, fillcolor="#e58139aa"] ;
9 -> 17 ;
18 [label=<gini = 0.0<br/>samples = 21<br/>value = [21, 0]>, fillcolor="#e58139ff"] ;
8 -> 18 ;
}